5 10
0 0.114863 0.0296328 -0.0620135 0.0226341 -0.312241 0.185638 0.184661 0.256979 -0.248959 0.207396
1 0.113357 0.0462503 -0.00877447 -0.0186247 -0.41904 0.24422 0.192592 0.334865 -0.29098 0.268363
2 -0.350415 0.447754 -0.272682 -0.0276682 -0.770186 0.530392 0.683836 1.03617 -0.566836 0.801453
4 0.196302 -0.0257071 0.168274 -0.184488 -0.832232 0.52854 0.21427 0.526629 -0.735806 0.62753
3 0.0255416 0.0796462 -0.0180615 -0.0685151 -0.313671 0.267642 0.230455 0.347854 -0.173279 0.198271
